<?xml version="1.0"?>
<opencv_storage>
<cascade>
  <stageType>BOOST</stageType>
  <featureType>HAAR</featureType>
  <height>14</height>
  <width>20</width>
  <stageParams>
    <boostType>GAB</boostType>
    <minHitRate>9.9500000476837158e-01</minHitRate>
    <maxFalseAlarm>5.0000000000000000e-01</maxFalseAlarm>
    <weightTrimRate>9.4999999999999996e-01</weightTrimRate>
    <maxDepth>1</maxDepth>
    <maxWeakCount>100</maxWeakCount></stageParams>
  <featureParams>
    <maxCatCount>0</maxCatCount>
    <featSize>1</featSize>
    <mode>BASIC</mode></featureParams>
  <stageNum>15</stageNum>
  <stages>
    <!-- stage 0 -->
    <_>
      <maxWeakCount>2</maxWeakCount>
      <stageThreshold>-5.1998231559991837e-02</stageThreshold>
      <weakClassifiers>
        <_>
          <internalNodes>
            0 -1 31 2.5442086160182953e-02</internalNodes>
          <leafValues>
            -8.1971156597137451e-01 8.4689509868621826e-01</leafValues></_>
        <_>
          <internalNodes>
            0 -1 112 2.5825342163443565e-03</internalNodes>
          <leafValues>
            -7.2229361534118652e-01 7.6771330833435059e-01</leafValues></_></weakClassifiers></_>
    <!-- stage 1 -->
    <_>
      <maxWeakCount>4</maxWeakCount>
      <stageThreshold>-5.2693426609039307e-01</stageThreshold>
      <weakClassifiers>
        <_>
          <internalNodes>
            0 -1 32 4.1141733527183533e-02</internalNodes>
          <leafValues>
            -6.4797914028167725e-01 7.2271078824996948e-01</leafValues></_>
        <_>
          <internalNodes>
            0 -1 92 -8.1402584328316152e-05</internalNodes>
          <leafValues>
            4.1945046186447144e-01 -9.0716147422790527e-01</leafValues></_>
        <_>
          <internalNodes>
            0 -1 44 -2.7221795171499252e-03</internalNodes>
          <leafValues>
            5.5011624097824097e-01 -5.9094661474227905e-01</leafValues></_>
        <_>
          <internalNodes>
            0 -1 81 -1.6492157010361552e-03</internalNodes>
          <leafValues>
            -9.6547174453735352e-01 2.9254105687141418e-01</leafValues></_></weakClassifiers></_>
    <!-- stage 2 -->
    <_>
      <maxWeakCount>5</maxWeakCount>
      <stageThreshold>-1.2860686779022217e+00</stageThreshold>
      <weakClassifiers>
        <_>
          <internalNodes>
            0 -1 46 -5.3414581343531609e-03</internalNodes>
          <leafValues>
            7.8422713279724121e-01 -3.0762332677841187e-01</leafValues></_>
        <_>
          <internalNodes>
            0 -1 76 4.1152135236188769e-04</internalNodes>
          <leafValues>
            -8.6026829481124878e-01 4.0156787633895874e-01</leafValues></_>
        <_>
          <internalNodes>
            0 -1 104 -1.0388332884758711e-03</internalNodes>
          <leafValues>
            2.5415962934494019e-01 -8.7453311681747437e-01</leafValues></_>
        <_>
          <internalNodes>
            0 -1 40 8.0136163160204887e-03</internalNodes>
          <leafValues>
            -8.1324523687362671e-01 2.7572882175445557e-01</leafValues></_>
        <_>
          <internalNodes>
            0 -1 55 -2.0343512296676636e-03</internalNodes>
          <leafValues>
            2.3916545510292053e-01 -8.2092767953872681e-01</leafValues></_></weakClassifiers></_>
    <!-- stage 3 -->
    <_>
      <maxWeakCount>7</maxWeakCount>
      <stageThreshold>-7.8741091489791870e-01</stageThreshold>
      <weakClassifiers>
        <_>
          <internalNodes>
            0 -1 114 9.4295261078514159e-05</internalNodes>
          <leafValues>
            -8.0510443449020386e-01 5.4958128929138184e-01</leafValues></_>
        <_>
          <internalNodes>
            0 -1 43 1.5120545402169228e-02</internalNodes>
          <leafValues>
            -4.3872988224029541e-01 6.7791479825973511e-01</leafValues></_>
        <_>
          <internalNodes>
            0 -1 64 -2.0341072231531143e-03</internalNodes>
          <leafValues>
            3.1908199191093445e-01 -7.3107463121414185e-01</leafValues></_>
        <_>
          <internalNodes>
            0 -1 101 8.1293044786434621e-05</internalNodes>
          <leafValues>
            -7.6230633258819580e-01 2.5162875652313232e-01</leafValues></_>
        <_>
          <internalNodes>
            0 -1 98 -8.8509412307757884e-05</internalNodes>
          <leafValues>
            2.7511122822761536e-01 -6.5365719795227051e-01</leafValues></_>
        <_>
          <internalNodes>
            0 -1 17 -7.9458300024271011e-03</internalNodes>
          <leafValues>
            -8.6753171682357788e-01 2.1882036328315735e-01</leafValues></_>
        <_>
          <internalNodes>
            0 -1 26 1.1445836164057255e-02</internalNodes>
          <leafValues>
            1.7360401153564453e-01 -8.7471157312393188e-01</leafValues></_></weakClassifiers></_>
    <!-- stage 4 -->
    <_>
      <maxWeakCount>8</maxWeakCount>
      <stageThreshold>-7.4303942918777466e-01</stageThreshold>
      <weakClassifiers>
        <_>
          <internalNodes>
            0 -1 87 -1.7734684515744448e-03</internalNodes>
          <leafValues>
            5.7676351070404053e-01 -6.6101694107055664e-01</leafValues></_>
        <_>
          <internalNodes>
            0 -1 53 5.1835542544722557e-03</internalNodes>
          <leafValues>
            -4.5029893517494202e-01 5.7991421222686768e-01</leafValues></_>
        <_>
          <internalNodes>
            0 -1 59 1.3054012088105083e-03</internalNodes>
          <leafValues>
            -6.0495561361312866e-01 3.4930333495140076e-01</leafValues></_>
        <_>
          <internalNodes>
            0 -1 39 2.0515690557658672e-03</internalNodes>
          <leafValues>
            -8.7511664628982544e-01 2.1852225065231323e-01</leafValues></_>
        <_>
          <internalNodes>
            0 -1 106 -1.0339703876525164e-03</internalNodes>
          <leafValues>
            2.0341713726520538e-01 -7.6713085174560547e-01</leafValues></_>
        <_>
          <internalNodes>
            0 -1 71 3.6717788316309452e-04</internalNodes>
          <leafValues>
            -5.7076406478881836e-01 2.9144096374511719e-01</leafValues></_>
        <_>
          <internalNodes>
            0 -1 63 1.2930729426443577e-03</internalNodes>
          <leafValues>
            1.8016184866428375e-01 -8.7801653146743774e-01</leafValues></_>
        <_>
          <internalNodes>
            0 -1 82 2.1241381764411926e-02</internalNodes>
          <leafValues>
            1.4650899171829224e-01 -8.7456905841827393e-01</leafValues></_></weakClassifiers></_>
    <!-- stage 5 -->
    <_>
      <maxWeakCount>8</maxWeakCount>
      <stageThreshold>-6.8337583541870117e-01</stageThreshold>
      <weakClassifiers>
        <_>
          <internalNodes>
            0 -1 51 -2.8164325281977654e-02</internalNodes>
          <leafValues>
            -8.5714286565780640e-01 5.0253808498382568e-01</leafValues></_>
        <_>
          <internalNodes>
            0 -1 29 -1.3594150543212891e-02</internalNodes>
          <leafValues>
            6.9317209720611572e-01 -2.9341846704483032e-01</leafValues></_>
        <_>
          <internalNodes>
            0 -1 86 1.5299479127861559e-04</internalNodes>
          <leafValues>
            2.7642807364463806e-01 -8.1095987558364868e-01</leafValues></_>
        <_>
          <internalNodes>
            0 -1 83 2.4338832008652389e-04</internalNodes>
          <leafValues>
            2.1419927477836609e-01 -8.2601207494735718e-01</leafValues></_>
        <_>
          <internalNodes>
            0 -1 46 -4.4315773993730545e-03</internalNodes>
          <leafValues>
            3.4740000963211060e-01 -5.4648488759994507e-01</leafValues></_>
        <_>
          <internalNodes>
            0 -1 113 3.3247219398617744e-03</internalNodes>
          <leafValues>
            -7.0312881469726562e-01 2.2817623615264893e-01</leafValues></_>
        <_>
          <internalNodes>
            0 -1 89 -7.3261698707938194e-04</internalNodes>
          <leafValues>
            -8.1308531761169434e-01 1.6391314566135406e-01</leafValues></_>
        <_>
          <internalNodes>
            0 -1 50 1.6872100532054901e-03</internalNodes>
          <leafValues>
            -9.4183570146560669e-01 1.3095360994338989e-01</leafValues></_></weakClassifiers></_>
    <!-- stage 6 -->
    <_>
      <maxWeakCount>11</maxWeakCount>
      <stageThreshold>-1.0642482042312622e+00</stageThreshold>
      <weakClassifiers>
        <_>
          <internalNodes>
            0 -1 7 8.9177731424570084e-03</internalNodes>
          <leafValues>
            -5.0000000000000000e-01 5.1717901229858398e-01</leafValues></_>
        <_>
          <internalNodes>
            0 -1 102 -2.7230111300013959e-04</internalNodes>
          <leafValues>
            2.4438464641571045e-01 -7.1618324518203735e-01</leafValues></_>
        <_>
          <internalNodes>
            0 -1 74 -1.2695039622485638e-03</internalNodes>
          <leafValues>
            -7.2087341547012329e-01 2.5569069385528564e-01</leafValues></_>
        <_>
          <internalNodes>
            0 -1 85 5.4580112919211388e-04</internalNodes>
          <leafValues>
            1.3304537534713745e-01 -8.8725519180297852e-01</leafValues></_>
        <_>
          <internalNodes>
            0 -1 22 3.1056369189172983e-03</internalNodes>
          <leafValues>
            -3.7767380475997925e-01 3.6701714992523193e-01</leafValues></_>
        <_>
          <internalNodes>
            0 -1 18 4.9894027411937714e-02</internalNodes>
          <leafValues>
            1.4656321704387665e-01 -9.3342870473861694e-01</leafValues></_>
        <_>
          <internalNodes>
            0 -1 3 -1.3661680277436972e-03</internalNodes>
          <leafValues>
            4.8264756798744202e-01 -2.9381412267684937e-01</leafValues></_>
        <_>
          <internalNodes>
            0 -1 66 3.0504004098474979e-04</internalNodes>
          <leafValues>
            -3.9804103970527649e-01 3.5903277993202209e-01</leafValues></_>
        <_>
          <internalNodes>
            0 -1 96 1.0187595617026091e-03</internalNodes>
          <leafValues>
            -3.8721594214439392e-01 3.3497074246406555e-01</leafValues></_>
        <_>
          <internalNodes>
            0 -1 65 -1.7172677908092737e-03</internalNodes>
          <leafValues>
            3.5025677084922791e-01 -3.6654323339462280e-01</leafValues></_>
        <_>
          <internalNodes>
            0 -1 5 1.5540982130914927e-03</internalNodes>
          <leafValues>
            -2.7459630370140076e-01 4.9909862875938416e-01</leafValues></_></weakClassifiers></_>
    <!-- stage 7 -->
    <_>
      <maxWeakCount>8</maxWeakCount>
      <stageThreshold>-7.0828872919082642e-01</stageThreshold>
      <weakClassifiers>
        <_>
          <internalNodes>
            0 -1 33 -7.8727379441261292e-03</internalNodes>
          <leafValues>
            -8.6046510934829712e-01 4.5945945382118225e-01</leafValues></_>
        <_>
          <internalNodes>
            0 -1 36 1.0822590440511703e-02</internalNodes>
          <leafValues>
            2.5974938273429871e-01 -8.5916799306869507e-01</leafValues></_>
        <_>
          <internalNodes>
            0 -1 1 5.1260888576507568e-03</internalNodes>
          <leafValues>
            -3.8687479496002197e-01 4.6285980939865112e-01</leafValues></_>
        <_>
          <internalNodes>
            0 -1 93 -2.2018649615347385e-03</internalNodes>
          <leafValues>
            2.1379730105400085e-01 -6.9330662488937378e-01</leafValues></_>
        <_>
          <internalNodes>
            0 -1 103 7.9764414113014936e-04</internalNodes>
          <leafValues>
            -7.3860806226730347e-01 1.9814476370811462e-01</leafValues></_>
        <_>
          <internalNodes>
            0 -1 72 -6.4432225190103054e-04</internalNodes>
          <leafValues>
            -7.5325626134872437e-01 1.4870718121528625e-01</leafValues></_>
        <_>
          <internalNodes>
            0 -1 110 2.8501965571194887e-03</internalNodes>
          <leafValues>
            2.2729094326496124e-01 -5.8053356409072876e-01</leafValues></_>
        <_>
          <internalNodes>
            0 -1 104 -3.0464911833405495e-03</internalNodes>
          <leafValues>
            1.9745831191539764e-01 -6.2448287010192871e-01</leafValues></_></weakClassifiers></_>
    <!-- stage 8 -->
    <_>
      <maxWeakCount>13</maxWeakCount>
      <stageThreshold>-8.1079459190368652e-01</stageThreshold>
      <weakClassifiers>
        <_>
          <internalNodes>
            0 -1 84 1.0276379907736555e-04</internalNodes>
          <leafValues>
            -8.1818181276321411e-01 4.6975973248481750e-01</leafValues></_>
        <_>
          <internalNodes>
            0 -1 37 -2.5293696671724319e-03</internalNodes>
          <leafValues>
            3.3415350317955017e-01 -5.8519476652145386e-01</leafValues></_>
        <_>
          <internalNodes>
            0 -1 23 3.9716553874313831e-04</internalNodes>
          <leafValues>
            -5.4235869646072388e-01 2.3150776326656342e-01</leafValues></_>
        <_>
          <internalNodes>
            0 -1 73 3.0886109452694654e-03</internalNodes>
          <leafValues>
            1.5279579162597656e-01 -8.4596884250640869e-01</leafValues></_>
        <_>
          <internalNodes>
            0 -1 57 2.4779243394732475e-03</internalNodes>
          <leafValues>
            -3.1202414631843567e-01 4.1933920979499817e-01</leafValues></_>
        <_>
          <internalNodes>
            0 -1 80 3.5000825300812721e-04</internalNodes>
          <leafValues>
            -4.5166027545928955e-01 2.9204609990119934e-01</leafValues></_>
        <_>
          <internalNodes>
            0 -1 99 1.5767680015414953e-03</internalNodes>
          <leafValues>
            1.5054027736186981e-01 -8.5719680786132812e-01</leafValues></_>
        <_>
          <internalNodes>
            0 -1 2 -4.8005529679358006e-03</internalNodes>
          <leafValues>
            3.1937429308891296e-01 -4.1235572099685669e-01</leafValues></_>
        <_>
          <internalNodes>
            0 -1 111 2.1915361867286265e-04</internalNodes>
          <leafValues>
            1.1859647184610367e-01 -8.7154340744018555e-01</leafValues></_>
        <_>
          <internalNodes>
            0 -1 72 -5.6470523122698069e-04</internalNodes>
          <leafValues>
            -6.3686019182205200e-01 1.4554411172866821e-01</leafValues></_>
        <_>
          <internalNodes>
            0 -1 113 5.8487416245043278e-03</internalNodes>
          <leafValues>
            -5.1289957761764526e-01 2.2793971002101898e-01</leafValues></_>
        <_>
          <internalNodes>
            0 -1 9 -1.6764272004365921e-02</internalNodes>
          <leafValues>
            -7.5465673208236694e-01 1.1855767667293549e-01</leafValues></_>
        <_>
          <internalNodes>
            0 -1 8 -6.8452986888587475e-03</internalNodes>
          <leafValues>
            5.2833276987075806e-01 -2.2420537471771240e-01</leafValues></_></weakClassifiers></_>
    <!-- stage 9 -->
    <_>
      <maxWeakCount>11</maxWeakCount>
      <stageThreshold>-9.4204038381576538e-01</stageThreshold>
      <weakClassifiers>
        <_>
          <internalNodes>
            0 -1 101 -1.2033565144520253e-04</internalNodes>
          <leafValues>
            -8.1599998474121094e-01 4.5061224699020386e-01</leafValues></_>
        <_>
          <internalNodes>
            0 -1 52 2.8880699537694454e-03</internalNodes>
          <leafValues>
            -2.7195674180984497e-01 4.9057936668395996e-01</leafValues></_>
        <_>
          <internalNodes>
            0 -1 98 -9.3563547125086188e-05</internalNodes>
          <leafValues>
            2.4127349257469177e-01 -5.4161405563354492e-01</leafValues></_>
        <_>
          <internalNodes>
            0 -1 30 -8.8238101452589035e-03</internalNodes>
          <leafValues>
            1.6126275062561035e-01 -6.4210164546966553e-01</leafValues></_>
        <_>
          <internalNodes>
            0 -1 90 2.4986851960420609e-02</internalNodes>
          <leafValues>
            1.6146455705165863e-01 -7.3867440223693848e-01</leafValues></_>
        <_>
          <internalNodes>
            0 -1 4 -1.8329294398427010e-02</internalNodes>
          <leafValues>
            -8.8194471597671509e-01 1.0415217280387878e-01</leafValues></_>
        <_>
          <internalNodes>
            0 -1 75 -1.7785552889108658e-02</internalNodes>
          <leafValues>
            -8.5133534669876099e-01 1.0049880295991898e-01</leafValues></_>
        <_>
          <internalNodes>
            0 -1 15 -1.2080853339284658e-03</internalNodes>
          <leafValues>
            3.6055979132652283e-01 -3.1266006827354431e-01</leafValues></_>
        <_>
          <internalNodes>
            0 -1 26 1.2768705375492573e-02</internalNodes>
          <leafValues>
            1.0487062484025955e-01 -8.7545317411422729e-01</leafValues></_>
        <_>
          <internalNodes>
            0 -1 116 -6.7550665698945522e-03</internalNodes>
          <leafValues>
            6.0451638698577881e-01 -2.0725351572036743e-01</leafValues></_>
        <_>
          <internalNodes>
            0 -1 62 -1.0124455438926816e-03</internalNodes>
          <leafValues>
            1.8116092681884766e-01 -6.9141715764999390e-01</leafValues></_></weakClassifiers></_>
    <!-- stage 10 -->
    <_>
      <maxWeakCount>14</maxWeakCount>
      <stageThreshold>-9.6005666255950928e-01</stageThreshold>
      <weakClassifiers>
        <_>
          <internalNodes>
            0 -1 109 4.1939824586734176e-04</internalNodes>
          <leafValues>
            4.5568561553955078e-01 -6.1688309907913208e-01</leafValues></_>
        <_>
          <internalNodes>
            0 -1 100 -1.4737395104020834e-03</internalNodes>
          <leafValues>
            -4.2564409971237183e-01 3.2904481887817383e-01</leafValues></_>
        <_>
          <internalNodes>
            0 -1 46 -7.9898089170455933e-03</internalNodes>
          <leafValues>
            3.4526029229164124e-01 -3.7999987602233887e-01</leafValues></_>
        <_>
          <internalNodes>
            0 -1 94 -2.2012637928128242e-03</internalNodes>
          <leafValues>
            1.9641309976577759e-01 -5.4821312427520752e-01</leafValues></_>
        <_>
          <internalNodes>
            0 -1 24 -9.7234975546598434e-03</internalNodes>
          <leafValues>
            -8.2064068317413330e-01 1.2565732002258301e-01</leafValues></_>
        <_>
          <internalNodes>
            0 -1 103 7.9854403156787157e-04</internalNodes>
          <leafValues>
            -6.7201244831085205e-01 1.4093324542045593e-01</leafValues></_>
        <_>
          <internalNodes>
            0 -1 12 -1.7505586147308350e-02</internalNodes>
          <leafValues>
            6.5249139070510864e-01 -2.0002371072769165e-01</leafValues></_>
        <_>
          <internalNodes>
            0 -1 41 -1.3678560499101877e-03</internalNodes>
          <leafValues>
            4.0589058399200439e-01 -3.1422159075737000e-01</leafValues></_>
        <_>
          <internalNodes>
            0 -1 69 -1.7913736402988434e-02</internalNodes>
          <leafValues>
            -8.2956773042678833e-01 1.6229043900966644e-01</leafValues></_>
        <_>
          <internalNodes>
            0 -1 106 -4.9171363934874535e-04</internalNodes>
          <leafValues>
            1.2155269831418991e-01 -7.9356890916824341e-01</leafValues></_>
        <_>
          <internalNodes>
            0 -1 61 4.3953108252026141e-04</internalNodes>
          <leafValues>
            -3.5112863779067993e-01 2.6448997855186462e-01</leafValues></_>
        <_>
          <internalNodes>
            0 -1 35 -9.6030896529555321e-03</internalNodes>
          <leafValues>
            -8.7029427289962769e-01 9.5067538321018219e-02</leafValues></_>
        <_>
          <internalNodes>
            0 -1 88 3.7646788405254483e-04</internalNodes>
          <leafValues>
            -6.7037546634674072e-01 1.2557476758956909e-01</leafValues></_>
        <_>
          <internalNodes>
            0 -1 82 2.4371314793825150e-02</internalNodes>
          <leafValues>
            8.3736747503280640e-02 -9.3467742204666138e-01</leafValues></_></weakClassifiers></_>
    <!-- stage 11 -->
    <_>
      <maxWeakCount>12</maxWeakCount>
      <stageThreshold>-8.3474403619766235e-01</stageThreshold>
      <weakClassifiers>
        <_>
          <internalNodes>
            0 -1 83 -5.5985909420996904e-04</internalNodes>
          <leafValues>
            -3.1543624401092529e-01 5.1711028814315796e-01</leafValues></_>
        <_>
          <internalNodes>
            0 -1 70 2.4791184114292264e-04</internalNodes>
          <leafValues>
            -4.8247885704040527e-01 3.2754874229431152e-01</leafValues></_>
        <_>
          <internalNodes>
            0 -1 93 -1.5775519423186779e-03</internalNodes>
          <leafValues>
            1.5351448953151703e-01 -7.6794642210006714e-01</leafValues></_>
        <_>
          <internalNodes>
            0 -1 29 -1.8650505691766739e-02</internalNodes>
          <leafValues>
            5.7443553209304810e-01 -2.2824516892433167e-01</leafValues></_>
        <_>
          <internalNodes>
            0 -1 83 4.0759411058388650e-04</internalNodes>
          <leafValues>
            1.4582212269306183e-01 -8.1899094581604004e-01</leafValues></_>
        <_>
          <internalNodes>
            0 -1 14 -8.0524035729467869e-04</internalNodes>
          <leafValues>
            1.6586789488792419e-01 -5.3382259607315063e-01</leafValues></_>
        <_>
          <internalNodes>
            0 -1 42 -3.0611748807132244e-03</internalNodes>
          <leafValues>
            -8.5237711668014526e-01 1.1408443748950958e-01</leafValues></_>
        <_>
          <internalNodes>
            0 -1 106 -2.2098131012171507e-03</internalNodes>
          <leafValues>
            1.4776295423507690e-01 -5.4962790012359619e-01</leafValues></_>
        <_>
          <internalNodes>
            0 -1 95 -1.0493304580450058e-03</internalNodes>
          <leafValues>
            3.1935754418373108e-01 -4.0117719769477844e-01</leafValues></_>
        <_>
          <internalNodes>
            0 -1 34 9.8331719636917114e-03</internalNodes>
          <leafValues>
            1.2222396582365036e-01 -9.1640859842300415e-01</leafValues></_>
        <_>
          <internalNodes>
            0 -1 48 -8.8140591979026794e-03</internalNodes>
          <leafValues>
            -7.7677124738693237e-01 8.5090868175029755e-02</leafValues></_>
        <_>
          <internalNodes>
            0 -1 20 1.4696199446916580e-02</internalNodes>
          <leafValues>
            -1.9367752969264984e-01 5.4240745306015015e-01</leafValues></_></weakClassifiers></_>
    <!-- stage 12 -->
    <_>
      <maxWeakCount>13</maxWeakCount>
      <stageThreshold>-8.2572299242019653e-01</stageThreshold>
      <weakClassifiers>
        <_>
          <internalNodes>
            0 -1 74 -1.3853595592081547e-03</internalNodes>
          <leafValues>
            -4.9494948983192444e-01 4.7569444775581360e-01</leafValues></_>
        <_>
          <internalNodes>
            0 -1 54 3.4661986865103245e-03</internalNodes>
          <leafValues>
            -4.3169879913330078e-01 2.6321306824684143e-01</leafValues></_>
        <_>
          <internalNodes>
            0 -1 58 9.3296272680163383e-03</internalNodes>
          <leafValues>
            -2.6878118515014648e-01 4.3035992980003357e-01</leafValues></_>
        <_>
          <internalNodes>
            0 -1 38 2.1348122507333755e-02</internalNodes>
          <leafValues>
            1.0554873943328857e-01 -8.1010091304779053e-01</leafValues></_>
        <_>
          <internalNodes>
            0 -1 0 3.3320160582661629e-03</internalNodes>
          <leafValues>
            -2.6116904616355896e-01 4.0839302539825439e-01</leafValues></_>
        <_>
          <internalNodes>
            0 -1 115 3.0717239133082330e-04</internalNodes>
          <leafValues>
            -4.6258756518363953e-01 1.8562465906143188e-01</leafValues></_>
        <_>
          <internalNodes>
            0 -1 55 -6.3408073037862778e-03</internalNodes>
          <leafValues>
            1.5369050204753876e-01 -6.2232691049575806e-01</leafValues></_>
        <_>
          <internalNodes>
            0 -1 79 -2.1834885701537132e-03</internalNodes>
          <leafValues>
            3.9995539188385010e-01 -2.3564140498638153e-01</leafValues></_>
        <_>
          <internalNodes>
            0 -1 105 -1.1034461203962564e-03</internalNodes>
          <leafValues>
            -6.1921089887619019e-01 1.3066917657852173e-01</leafValues></_>
        <_>
          <internalNodes>
            0 -1 13 7.6279474887996912e-04</internalNodes>
          <leafValues>
            -5.5601412057876587e-01 1.7104052007198334e-01</leafValues></_>
        <_>
          <internalNodes>
            0 -1 21 7.9084392637014389e-03</internalNodes>
          <leafValues>
            -2.2307214140892029e-01 4.9452301859855652e-01</leafValues></_>
        <_>
          <internalNodes>
            0 -1 11 1.1730853002518415e-03</internalNodes>
          <leafValues>
            -2.7664521336555481e-01 4.0960004925727844e-01</leafValues></_>
        <_>
          <internalNodes>
            0 -1 49 3.0280232895165682e-03</internalNodes>
          <leafValues>
            -8.2218581438064575e-01 1.2857408821582794e-01</leafValues></_></weakClassifiers></_>
    <!-- stage 13 -->
    <_>
      <maxWeakCount>15</maxWeakCount>
      <stageThreshold>-8.9356368780136108e-01</stageThreshold>
      <weakClassifiers>
        <_>
          <internalNodes>
            0 -1 78 -1.6050477279350162e-04</internalNodes>
          <leafValues>
            -5.1482480764389038e-01 4.6844139695167542e-01</leafValues></_>
        <_>
          <internalNodes>
            0 -1 28 -8.5838707163929939e-03</internalNodes>
          <leafValues>
            3.9247491955757141e-01 -2.5751030445098877e-01</leafValues></_>
        <_>
          <internalNodes>
            0 -1 101 9.6216535894200206e-05</internalNodes>
          <leafValues>
            -7.4004912376403809e-01 1.3518203794956207e-01</leafValues></_>
        <_>
          <internalNodes>
            0 -1 111 4.8852787585929036e-04</internalNodes>
          <leafValues>
            8.5078574717044830e-02 -9.3048429489135742e-01</leafValues></_>
        <_>
          <internalNodes>
            0 -1 56 -6.2151802703738213e-03</internalNodes>
          <leafValues>
            3.1968235969543457e-01 -3.1550374627113342e-01</leafValues></_>
        <_>
          <internalNodes>
            0 -1 60 1.4472077600657940e-03</internalNodes>
          <leafValues>
            -2.4773523211479187e-01 4.2774975299835205e-01</leafValues></_>
        <_>
          <internalNodes>
            0 -1 47 -1.4494946226477623e-02</internalNodes>
          <leafValues>
            -7.1201735734939575e-01 1.4378842711448669e-01</leafValues></_>
        <_>
          <internalNodes>
            0 -1 16 2.0019199699163437e-02</internalNodes>
          <leafValues>
            1.2145131081342697e-01 -7.2205686569213867e-01</leafValues></_>
        <_>
          <internalNodes>
            0 -1 102 -7.2990404441952705e-04</internalNodes>
          <leafValues>
            1.5048518776893616e-01 -5.2290982007980347e-01</leafValues></_>
        <_>
          <internalNodes>
            0 -1 108 -2.5616474449634552e-03</internalNodes>
          <leafValues>
            3.8537847995758057e-01 -2.6695138216018677e-01</leafValues></_>
        <_>
          <internalNodes>
            0 -1 81 -2.2047893144190311e-03</internalNodes>
          <leafValues>
            -9.5905983448028564e-01 8.9971370995044708e-02</leafValues></_>
        <_>
          <internalNodes>
            0 -1 67 5.4791546426713467e-04</internalNodes>
          <leafValues>
            -3.2586097717285156e-01 3.0120840668678284e-01</leafValues></_>
        <_>
          <internalNodes>
            0 -1 19 -1.0920239612460136e-02</internalNodes>
          <leafValues>
            6.2425011396408081e-01 -1.5736821293830872e-01</leafValues></_>
        <_>
          <internalNodes>
            0 -1 20 -1.5698440372943878e-02</internalNodes>
          <leafValues>
            6.1282527446746826e-01 -1.4864026010036469e-01</leafValues></_>
        <_>
          <internalNodes>
            0 -1 91 -5.8947602519765496e-04</internalNodes>
          <leafValues>
            -3.6839190125465393e-01 3.5465213656425476e-01</leafValues></_></weakClassifiers></_>
    <!-- stage 14 -->
    <_>
      <maxWeakCount>15</maxWeakCount>
      <stageThreshold>-8.5461103916168213e-01</stageThreshold>
      <weakClassifiers>
        <_>
          <internalNodes>
            0 -1 92 -2.8163086972199380e-04</internalNodes>
          <leafValues>
            4.3957394361495972e-01 -6.6795367002487183e-01</leafValues></_>
        <_>
          <internalNodes>
            0 -1 53 6.2988060526549816e-03</internalNodes>
          <leafValues>
            -2.8199198842048645e-01 3.8855063915252686e-01</leafValues></_>
        <_>
          <internalNodes>
            0 -1 6 1.8350486643612385e-03</internalNodes>
          <leafValues>
            -3.1602880358695984e-01 3.1858745217323303e-01</leafValues></_>
        <_>
          <internalNodes>
            0 -1 10 -2.3563142865896225e-02</internalNodes>
          <leafValues>
            -9.1500300168991089e-01 8.7006688117980957e-02</leafValues></_>
        <_>
          <internalNodes>
            0 -1 20 -1.7179818823933601e-02</internalNodes>
          <leafValues>
            5.9369134902954102e-01 -2.0720109343528748e-01</leafValues></_>
        <_>
          <internalNodes>
            0 -1 77 -4.4565577991306782e-04</internalNodes>
          <leafValues>
            -6.1284381151199341e-01 1.6243873536586761e-01</leafValues></_>
        <_>
          <internalNodes>
            0 -1 77 3.7374516250565648e-04</internalNodes>
          <leafValues>
            2.5264587998390198e-01 -5.2980518341064453e-01</leafValues></_>
        <_>
          <internalNodes>
            0 -1 68 -1.2854095548391342e-03</internalNodes>
          <leafValues>
            3.2560709118843079e-01 -2.5951021909713745e-01</leafValues></_>
        <_>
          <internalNodes>
            0 -1 97 -2.6433598250150681e-02</internalNodes>
          <leafValues>
            7.5354284048080444e-01 -1.4714172482490540e-01</leafValues></_>
        <_>
          <internalNodes>
            0 -1 118 2.5908241514116526e-03</internalNodes>
          <leafValues>
            -1.9128467142581940e-01 4.5404866337776184e-01</leafValues></_>
        <_>
          <internalNodes>
            0 -1 27 8.8237663730978966e-03</internalNodes>
          <leafValues>
            1.3075000047683716e-01 -6.9141530990600586e-01</leafValues></_>
        <_>
          <internalNodes>
            0 -1 45 -3.0282747466117144e-03</internalNodes>
          <leafValues>
            -6.0199922323226929e-01 1.2294477969408035e-01</leafValues></_>
        <_>
          <internalNodes>
            0 -1 25 -4.4593205675482750e-03</internalNodes>
          <leafValues>
            -7.7962464094161987e-01 8.8728703558444977e-02</leafValues></_>
        <_>
          <internalNodes>
            0 -1 117 -7.6903011649847031e-03</internalNodes>
          <leafValues>
            5.0299090147018433e-01 -1.8472680449485779e-01</leafValues></_>
        <_>
          <internalNodes>
            0 -1 107 1.7110703047364950e-03</internalNodes>
          <leafValues>
            -7.6473188400268555e-01 1.4851963520050049e-01</leafValues></_></weakClassifiers></_></stages>
  <features>
    <_>
      <rects>
        <_>
          0 6 2 2 -1.</_>
        <_>
          1 6 1 2 2.</_></rects>
      <tilted>0</tilted></_>
    <_>
      <rects>
        <_>
          0 6 3 2 -1.</_>
        <_>
          1 6 1 2 3.</_></rects>
      <tilted>0</tilted></_>
    <_>
      <rects>
        <_>
          1 7 6 2 -1.</_>
        <_>
          3 7 2 2 3.</_></rects>
      <tilted>0</tilted></_>
    <_>
      <rects>
        <_>
          1 8 2 1 -1.</_>
        <_>
          2 8 1 1 2.</_></rects>
      <tilted>0</tilted></_>
    <_>
      <rects>
        <_>
          2 9 16 1 -1.</_>
        <_>
          10 9 8 1 2.</_></rects>
      <tilted>0</tilted></_>
    <_>
      <rects>
        <_>
          3 7 2 1 -1.</_>
        <_>
          4 7 1 1 2.</_></rects>
      <tilted>0</tilted></_>
    <_>
      <rects>
        <_>
          3 8 2 2 -1.</_>
        <_>
          4 8 1 2 2.</_></rects>
      <tilted>0</tilted></_>
    <_>
      <rects>
        <_>
          3 9 15 2 -1.</_>
        <_>
          8 9 5 2 3.</_></rects>
      <tilted>0</tilted></_>
    <_>
      <rects>
        <_>
          4 5 2 3 -1.</_>
        <_>
          4 6 2 1 3.</_></rects>
      <tilted>0</tilted></_>
    <_>
      <rects>
        <_>
          4 8 9 3 -1.</_>
        <_>
          7 8 3 3 3.</_></rects>
      <tilted>0</tilted></_>
    <_>
      <rects>
        <_>
          4 9 14 1 -1.</_>
        <_>
          11 9 7 1 2.</_></rects>
      <tilted>0</tilted></_>
    <_>
      <rects>
        <_>
          4 10 1 2 -1.</_>
        <_>
          4 11 1 1 2.</_></rects>
      <tilted>0</tilted></_>
    <_>
      <rects>
        <_>
          5 8 10 2 -1.</_>
        <_>
          5 8 5 1 2.</_>
        <_>
          10 9 5 1 2.</_></rects>
      <tilted>0</tilted></_>
    <_>
      <rects>
        <_>
          5 9 8 2 -1.</_>
        <_>
          9 9 4 2 2.</_></rects>
      <tilted>0</tilted></_>
    <_>
      <rects>
        <_>
          5 9 7 2 -1.</_>
        <_>
          5 10 7 1 2.</_></rects>
      <tilted>0</tilted></_>
    <_>
      <rects>
        <_>
          6 7 2 1 -1.</_>
        <_>
          7 7 1 1 2.</_></rects>
      <tilted>0</tilted></_>
    <_>
      <rects>
        <_>
          6 7 4 4 -1.</_>
        <_>
          8 7 2 4 2.</_></rects>
      <tilted>0</tilted></_>
    <_>
      <rects>
        <_>
          6 7 9 3 -1.</_>
        <_>
          9 7 3 3 3.</_></rects>
      <tilted>0</tilted></_>
    <_>
      <rects>
        <_>
          6 7 9 4 -1.</_>
        <_>
          9 7 3 4 3.</_></rects>
      <tilted>0</tilted></_>
    <_>
      <rects>
        <_>
          6 7 8 2 -1.</_>
        <_>
          6 7 4 1 2.</_>
        <_>
          10 8 4 1 2.</_></rects>
      <tilted>0</tilted></_>
    <_>
      <rects>
        <_>
          6 8 8 2 -1.</_>
        <_>
          6 8 4 1 2.</_>
        <_>
          10 9 4 1 2.</_></rects>
      <tilted>0</tilted></_>
    <_>
      <rects>
        <_>
          6 10 6 2 -1.</_>
        <_>
          6 10 3 1 2.</_>
        <_>
          9 11 3 1 2.</_></rects>
      <tilted>0</tilted></_>
    <_>
      <rects>
        <_>
          7 6 6 2 -1.</_>
        <_>
          9 6 2 2 3.</_></rects>
      <tilted>0</tilted></_>
    <_>
      <rects>
        <_>
          7 7 6 2 -1.</_>
        <_>
          9 7 2 2 3.</_></rects>
      <tilted>0</tilted></_>
    <_>
      <rects>
        <_>
          7 7 6 4 -1.</_>
        <_>
          9 7 2 4 3.</_></rects>
      <tilted>0</tilted></_>
    <_>
      <rects>
        <_>
          7 8 6 2 -1.</_>
        <_>
          9 8 2 2 3.</_></rects>
      <tilted>0</tilted></_>
    <_>
      <rects>
        <_>
          7 9 6 2 -1.</_>
        <_>
          9 9 2 2 3.</_></rects>
      <tilted>0</tilted></_>
    <_>
      <rects>
        <_>
          7 9 10 2 -1.</_>
        <_>
          12 9 5 2 2.</_></rects>
      <tilted>0</tilted></_>
    <_>
      <rects>
        <_>
          7 11 5 2 -1.</_>
        <_>
          7 12 5 1 2.</_></rects>
      <tilted>0</tilted></_>
    <_>
      <rects>
        <_>
          7 11 6 2 -1.</_>
        <_>
          7 12 6 1 2.</_></rects>
      <tilted>0</tilted></_>
    <_>
      <rects>
        <_>
          8 4 4 6 -1.</_>
        <_>
          8 6 4 2 3.</_></rects>
      <tilted>0</tilted></_>
    <_>
      <rects>
        <_>
          8 6 7 4 -1.</_>
        <_>
          8 8 7 2 2.</_></rects>
      <tilted>0</tilted></_>
    <_>
      <rects>
        <_>
          8 6 10 4 -1.</_>
        <_>
          8 8 10 2 2.</_></rects>
      <tilted>0</tilted></_>
    <_>
      <rects>
        <_>
          8 8 9 3 -1.</_>
        <_>
          11 8 3 3 3.</_></rects>
      <tilted>0</tilted></_>
    <_>
      <rects>
        <_>
          8 9 4 2 -1.</_>
        <_>
          10 9 2 2 2.</_></rects>
      <tilted>0</tilted></_>
    <_>
      <rects>
        <_>
          8 9 6 2 -1.</_>
        <_>
          10 9 2 2 3.</_></rects>
      <tilted>0</tilted></_>
    <_>
      <rects>
        <_>
          8 9 6 2 -1.</_>
        <_>
          11 9 3 2 2.</_></rects>
      <tilted>0</tilted></_>
    <_>
      <rects>
        <_>
          8 9 5 2 -1.</_>
        <_>
          8 10 5 1 2.</_></rects>
      <tilted>0</tilted></_>
    <_>
      <rects>
        <_>
          9 5 2 4 -1.</_>
        <_>
          9 7 2 2 2.</_></rects>
      <tilted>0</tilted></_>
    <_>
      <rects>
        <_>
          9 6 1 4 -1.</_>
        <_>
          9 8 1 2 2.</_></rects>
      <tilted>0</tilted></_>
    <_>
      <rects>
        <_>
          9 6 2 4 -1.</_>
        <_>
          9 8 2 2 2.</_></rects>
      <tilted>0</tilted></_>
    <_>
      <rects>
        <_>
          9 7 2 2 -1.</_>
        <_>
          9 7 1 1 2.</_>
        <_>
          10 8 1 1 2.</_></rects>
      <tilted>0</tilted></_>
    <_>
      <rects>
        <_>
          9 7 3 4 -1.</_>
        <_>
          9 9 3 2 2.</_></rects>
      <tilted>0</tilted></_>
    <_>
      <rects>
        <_>
          9 8 3 3 -1.</_>
        <_>
          9 9 3 1 3.</_></rects>
      <tilted>0</tilted></_>
    <_>
      <rects>
        <_>
          9 9 2 2 -1.</_>
        <_>
          9 10 2 1 2.</_></rects>
      <tilted>0</tilted></_>
    <_>
      <rects>
        <_>
          9 9 4 2 -1.</_>
        <_>
          11 9 2 2 2.</_></rects>
      <tilted>0</tilted></_>
    <_>
      <rects>
        <_>
          9 9 3 2 -1.</_>
        <_>
          9 10 3 1 2.</_></rects>
      <tilted>0</tilted></_>
    <_>
      <rects>
        <_>
          10 4 1 6 -1.</_>
        <_>
          10 6 1 2 3.</_></rects>
      <tilted>0</tilted></_>
    <_>
      <rects>
        <_>
          10 5 1 6 -1.</_>
        <_>
          10 7 1 2 3.</_></rects>
      <tilted>0</tilted></_>
    <_>
      <rects>
        <_>
          10 5 1 6 -1.</_>
        <_>
          10 8 1 3 2.</_></rects>
      <tilted>0</tilted></_>
    <_>
      <rects>
        <_>
          10 6 1 4 -1.</_>
        <_>
          10 8 1 2 2.</_></rects>
      <tilted>0</tilted></_>
    <_>
      <rects>
        <_>
          10 6 10 3 -1.</_>
        <_>
          15 6 5 3 2.</_></rects>
      <tilted>0</tilted></_>
    <_>
      <rects>
        <_>
          10 7 4 2 -1.</_>
        <_>
          10 7 2 1 2.</_>
        <_>
          12 8 2 1 2.</_></rects>
      <tilted>0</tilted></_>
    <_>
      <rects>
        <_>
          10 8 1 3 -1.</_>
        <_>
          10 9 1 1 3.</_></rects>
      <tilted>0</tilted></_>
    <_>
      <rects>
        <_>
          10 8 6 3 -1.</_>
        <_>
          12 8 2 3 3.</_></rects>
      <tilted>0</tilted></_>
    <_>
      <rects>
        <_>
          10 8 8 2 -1.</_>
        <_>
          14 8 4 2 2.</_></rects>
      <tilted>0</tilted></_>
    <_>
      <rects>
        <_>
          10 9 2 3 -1.</_>
        <_>
          10 10 2 1 3.</_></rects>
      <tilted>0</tilted></_>
    <_>
      <rects>
        <_>
          10 10 1 3 -1.</_>
        <_>
          10 11 1 1 3.</_></rects>
      <tilted>0</tilted></_>
    <_>
      <rects>
        <_>
          12 6 6 3 -1.</_>
        <_>
          14 6 2 3 3.</_></rects>
      <tilted>0</tilted></_>
    <_>
      <rects>
        <_>
          12 6 8 1 -1.</_>
        <_>
          16 6 4 1 2.</_></rects>
      <tilted>0</tilted></_>
    <_>
      <rects>
        <_>
          12 7 2 1 -1.</_>
        <_>
          13 7 1 1 2.</_></rects>
      <tilted>0</tilted></_>
    <_>
      <rects>
        <_>
          13 6 2 2 -1.</_>
        <_>
          14 6 1 2 2.</_></rects>
      <tilted>0</tilted></_>
    <_>
      <rects>
        <_>
          13 7 4 3 -1.</_>
        <_>
          15 7 2 3 2.</_></rects>
      <tilted>0</tilted></_>
    <_>
      <rects>
        <_>
          13 8 2 2 -1.</_>
        <_>
          14 8 1 2 2.</_></rects>
      <tilted>0</tilted></_>
    <_>
      <rects>
        <_>
          13 8 4 2 -1.</_>
        <_>
          15 8 2 2 2.</_></rects>
      <tilted>0</tilted></_>
    <_>
      <rects>
        <_>
          14 2 2 2 -1.</_>
        <_>
          14 3 2 1 2.</_></rects>
      <tilted>0</tilted></_>
    <_>
      <rects>
        <_>
          14 4 1 2 -1.</_>
        <_>
          14 5 1 1 2.</_></rects>
      <tilted>0</tilted></_>
    <_>
      <rects>
        <_>
          14 4 2 2 -1.</_>
        <_>
          14 5 2 1 2.</_></rects>
      <tilted>0</tilted></_>
    <_>
      <rects>
        <_>
          14 4 4 2 -1.</_>
        <_>
          14 4 2 1 2.</_>
        <_>
          16 5 2 1 2.</_></rects>
      <tilted>0</tilted></_>
    <_>
      <rects>
        <_>
          14 4 4 5 -1.</_>
        <_>
          16 4 2 5 2.</_></rects>
      <tilted>0</tilted></_>
    <_>
      <rects>
        <_>
          14 5 1 2 -1.</_>
        <_>
          14 6 1 1 2.</_></rects>
      <tilted>0</tilted></_>
    <_>
      <rects>
        <_>
          14 5 2 2 -1.</_>
        <_>
          14 6 2 1 2.</_></rects>
      <tilted>0</tilted></_>
    <_>
      <rects>
        <_>
          14 6 2 1 -1.</_>
        <_>
          15 6 1 1 2.</_></rects>
      <tilted>0</tilted></_>
    <_>
      <rects>
        <_>
          14 6 2 3 -1.</_>
        <_>
          15 6 1 3 2.</_></rects>
      <tilted>0</tilted></_>
    <_>
      <rects>
        <_>
          14 6 4 1 -1.</_>
        <_>
          16 6 2 1 2.</_></rects>
      <tilted>0</tilted></_>
    <_>
      <rects>
        <_>
          14 6 6 1 -1.</_>
        <_>
          16 6 2 1 3.</_></rects>
      <tilted>0</tilted></_>
    <_>
      <rects>
        <_>
          14 6 3 2 -1.</_>
        <_>
          14 7 3 1 2.</_></rects>
      <tilted>0</tilted></_>
    <_>
      <rects>
        <_>
          14 7 2 1 -1.</_>
        <_>
          15 7 1 1 2.</_></rects>
      <tilted>0</tilted></_>
    <_>
      <rects>
        <_>
          14 7 3 1 -1.</_>
        <_>
          15 7 1 1 3.</_></rects>
      <tilted>0</tilted></_>
    <_>
      <rects>
        <_>
          15 2 1 2 -1.</_>
        <_>
          15 3 1 1 2.</_></rects>
      <tilted>0</tilted></_>
    <_>
      <rects>
        <_>
          15 5 2 2 -1.</_>
        <_>
          15 6 2 1 2.</_></rects>
      <tilted>0</tilted></_>
    <_>
      <rects>
        <_>
          15 5 4 3 -1.</_>
        <_>
          17 5 2 3 2.</_></rects>
      <tilted>0</tilted></_>
    <_>
      <rects>
        <_>
          15 5 4 4 -1.</_>
        <_>
          15 7 4 2 2.</_></rects>
      <tilted>0</tilted></_>
    <_>
      <rects>
        <_>
          15 6 2 1 -1.</_>
        <_>
          16 6 1 1 2.</_></rects>
      <tilted>0</tilted></_>
    <_>
      <rects>
        <_>
          15 6 1 2 -1.</_>
        <_>
          15 7 1 1 2.</_></rects>
      <tilted>0</tilted></_>
    <_>
      <rects>
        <_>
          15 6 3 1 -1.</_>
        <_>
          16 6 1 1 3.</_></rects>
      <tilted>0</tilted></_>
    <_>
      <rects>
        <_>
          15 6 2 2 -1.</_>
        <_>
          15 6 1 1 2.</_>
        <_>
          16 7 1 1 2.</_></rects>
      <tilted>0</tilted></_>
    <_>
      <rects>
        <_>
          15 6 3 4 -1.</_>
        <_>
          16 6 1 4 3.</_></rects>
      <tilted>0</tilted></_>
    <_>
      <rects>
        <_>
          15 6 3 2 -1.</_>
        <_>
          15 7 3 1 2.</_></rects>
      <tilted>0</tilted></_>
    <_>
      <rects>
        <_>
          15 6 4 2 -1.</_>
        <_>
          15 7 4 1 2.</_></rects>
      <tilted>0</tilted></_>
    <_>
      <rects>
        <_>
          15 6 4 4 -1.</_>
        <_>
          15 8 4 2 2.</_></rects>
      <tilted>0</tilted></_>
    <_>
      <rects>
        <_>
          15 7 2 1 -1.</_>
        <_>
          16 7 1 1 2.</_></rects>
      <tilted>0</tilted></_>
    <_>
      <rects>
        <_>
          15 7 2 2 -1.</_>
        <_>
          16 7 1 2 2.</_></rects>
      <tilted>0</tilted></_>
    <_>
      <rects>
        <_>
          15 7 3 3 -1.</_>
        <_>
          16 7 1 3 3.</_></rects>
      <tilted>0</tilted></_>
    <_>
      <rects>
        <_>
          15 8 3 2 -1.</_>
        <_>
          16 8 1 2 3.</_></rects>
      <tilted>0</tilted></_>
    <_>
      <rects>
        <_>
          15 9 1 3 -1.</_>
        <_>
          15 10 1 1 3.</_></rects>
      <tilted>0</tilted></_>
    <_>
      <rects>
        <_>
          15 9 2 2 -1.</_>
        <_>
          15 9 1 1 2.</_>
        <_>
          16 10 1 1 2.</_></rects>
      <tilted>0</tilted></_>
    <_>
      <rects>
        <_>
          16 2 4 10 -1.</_>
        <_>
          18 2 2 10 2.</_></rects>
      <tilted>0</tilted></_>
    <_>
      <rects>
        <_>
          16 5 2 2 -1.</_>
        <_>
          16 5 1 1 2.</_>
        <_>
          17 6 1 1 2.</_></rects>
      <tilted>0</tilted></_>
    <_>
      <rects>
        <_>
          16 5 2 2 -1.</_>
        <_>
          16 6 2 1 2.</_></rects>
      <tilted>0</tilted></_>
    <_>
      <rects>
        <_>
          16 5 3 3 -1.</_>
        <_>
          16 6 3 1 3.</_></rects>
      <tilted>0</tilted></_>
    <_>
      <rects>
        <_>
          16 6 1 2 -1.</_>
        <_>
          16 7 1 1 2.</_></rects>
      <tilted>0</tilted></_>
    <_>
      <rects>
        <_>
          16 6 3 1 -1.</_>
        <_>
          17 6 1 1 3.</_></rects>
      <tilted>0</tilted></_>
    <_>
      <rects>
        <_>
          16 6 1 4 -1.</_>
        <_>
          16 8 1 2 2.</_></rects>
      <tilted>0</tilted></_>
    <_>
      <rects>
        <_>
          16 6 3 2 -1.</_>
        <_>
          17 6 1 2 3.</_></rects>
      <tilted>0</tilted></_>
    <_>
      <rects>
        <_>
          16 7 2 1 -1.</_>
        <_>
          17 7 1 1 2.</_></rects>
      <tilted>0</tilted></_>
    <_>
      <rects>
        <_>
          16 7 3 1 -1.</_>
        <_>
          17 7 1 1 3.</_></rects>
      <tilted>0</tilted></_>
    <_>
      <rects>
        <_>
          16 7 4 1 -1.</_>
        <_>
          18 7 2 1 2.</_></rects>
      <tilted>0</tilted></_>
    <_>
      <rects>
        <_>
          17 4 3 2 -1.</_>
        <_>
          18 4 1 2 3.</_></rects>
      <tilted>0</tilted></_>
    <_>
      <rects>
        <_>
          17 5 1 3 -1.</_>
        <_>
          17 6 1 1 3.</_></rects>
      <tilted>0</tilted></_>
    <_>
      <rects>
        <_>
          17 5 1 4 -1.</_>
        <_>
          17 7 1 2 2.</_></rects>
      <tilted>0</tilted></_>
    <_>
      <rects>
        <_>
          17 6 1 3 -1.</_>
        <_>
          17 7 1 1 3.</_></rects>
      <tilted>0</tilted></_>
    <_>
      <rects>
        <_>
          17 6 2 2 -1.</_>
        <_>
          18 6 1 2 2.</_></rects>
      <tilted>0</tilted></_>
    <_>
      <rects>
        <_>
          17 6 2 3 -1.</_>
        <_>
          18 6 1 3 2.</_></rects>
      <tilted>0</tilted></_>
    <_>
      <rects>
        <_>
          17 7 1 2 -1.</_>
        <_>
          17 8 1 1 2.</_></rects>
      <tilted>0</tilted></_>
    <_>
      <rects>
        <_>
          17 8 1 2 -1.</_>
        <_>
          17 9 1 1 2.</_></rects>
      <tilted>0</tilted></_>
    <_>
      <rects>
        <_>
          17 9 3 2 -1.</_>
        <_>
          18 9 1 2 3.</_></rects>
      <tilted>0</tilted></_>
    <_>
      <rects>
        <_>
          18 6 2 4 -1.</_>
        <_>
          19 6 1 4 2.</_></rects>
      <tilted>0</tilted></_>
    <_>
      <rects>
        <_>
          18 8 2 1 -1.</_>
        <_>
          19 8 1 1 2.</_></rects>
      <tilted>0</tilted></_></features></cascade>
</opencv_storage>
