<?xml version="1.0"?>
<opencv_storage>
<stage7>
  <maxWeakCount>8</maxWeakCount>
  <stageThreshold>-7.0828872919082642e-01</stageThreshold>
  <weakClassifiers>
    <_>
      <internalNodes>
        0 -1 26501 -7.8727379441261292e-03</internalNodes>
      <leafValues>
        -8.6046510934829712e-01 4.5945945382118225e-01</leafValues></_>
    <_>
      <internalNodes>
        0 -1 26622 1.0822590440511703e-02</internalNodes>
      <leafValues>
        2.5974938273429871e-01 -8.5916799306869507e-01</leafValues></_>
    <_>
      <internalNodes>
        0 -1 2521 5.1260888576507568e-03</internalNodes>
      <leafValues>
        -3.8687479496002197e-01 4.6285980939865112e-01</leafValues></_>
    <_>
      <internalNodes>
        0 -1 36798 -2.2018649615347385e-03</internalNodes>
      <leafValues>
        2.1379730105400085e-01 -6.9330662488937378e-01</leafValues></_>
    <_>
      <internalNodes>
        0 -1 37484 7.9764414113014936e-04</internalNodes>
      <leafValues>
        -7.3860806226730347e-01 1.9814476370811462e-01</leafValues></_>
    <_>
      <internalNodes>
        0 -1 35803 -6.4432225190103054e-04</internalNodes>
      <leafValues>
        -7.5325626134872437e-01 1.4870718121528625e-01</leafValues></_>
    <_>
      <internalNodes>
        0 -1 38014 2.8501965571194887e-03</internalNodes>
      <leafValues>
        2.2729094326496124e-01 -5.8053356409072876e-01</leafValues></_>
    <_>
      <internalNodes>
        0 -1 37485 -3.0464911833405495e-03</internalNodes>
      <leafValues>
        1.9745831191539764e-01 -6.2448287010192871e-01</leafValues></_></weakClassifiers></stage7>
</opencv_storage>
