<?xml version="1.0"?>
<opencv_storage>
<stage13>
  <maxWeakCount>15</maxWeakCount>
  <stageThreshold>-8.9356368780136108e-01</stageThreshold>
  <weakClassifiers>
    <_>
      <internalNodes>
        0 -1 35893 -1.6050477279350162e-04</internalNodes>
      <leafValues>
        -5.1482480764389038e-01 4.6844139695167542e-01</leafValues></_>
    <_>
      <internalNodes>
        0 -1 24515 -8.5838707163929939e-03</internalNodes>
      <leafValues>
        3.9247491955757141e-01 -2.5751030445098877e-01</leafValues></_>
    <_>
      <internalNodes>
        0 -1 37479 9.6216535894200206e-05</internalNodes>
      <leafValues>
        -7.4004912376403809e-01 1.3518203794956207e-01</leafValues></_>
    <_>
      <internalNodes>
        0 -1 38054 4.8852787585929036e-04</internalNodes>
      <leafValues>
        8.5078574717044830e-02 -9.3048429489135742e-01</leafValues></_>
    <_>
      <internalNodes>
        0 -1 30488 -6.2151802703738213e-03</internalNodes>
      <leafValues>
        3.1968235969543457e-01 -3.1550374627113342e-01</leafValues></_>
    <_>
      <internalNodes>
        0 -1 33442 1.4472077600657940e-03</internalNodes>
      <leafValues>
        -2.4773523211479187e-01 4.2774975299835205e-01</leafValues></_>
    <_>
      <internalNodes>
        0 -1 29753 -1.4494946226477623e-02</internalNodes>
      <leafValues>
        -7.1201735734939575e-01 1.4378842711448669e-01</leafValues></_>
    <_>
      <internalNodes>
        0 -1 21596 2.0019199699163437e-02</internalNodes>
      <leafValues>
        1.2145131081342697e-01 -7.2205686569213867e-01</leafValues></_>
    <_>
      <internalNodes>
        0 -1 37480 -7.2990404441952705e-04</internalNodes>
      <leafValues>
        1.5048518776893616e-01 -5.2290982007980347e-01</leafValues></_>
    <_>
      <internalNodes>
        0 -1 37966 -2.5616474449634552e-03</internalNodes>
      <leafValues>
        3.8537847995758057e-01 -2.6695138216018677e-01</leafValues></_>
    <_>
      <internalNodes>
        0 -1 36691 -2.2047893144190311e-03</internalNodes>
      <leafValues>
        -9.5905983448028564e-01 8.9971370995044708e-02</leafValues></_>
    <_>
      <internalNodes>
        0 -1 35625 5.4791546426713467e-04</internalNodes>
      <leafValues>
        -3.2586097717285156e-01 3.0120840668678284e-01</leafValues></_>
    <_>
      <internalNodes>
        0 -1 21630 -1.0920239612460136e-02</internalNodes>
      <leafValues>
        6.2425011396408081e-01 -1.5736821293830872e-01</leafValues></_>
    <_>
      <internalNodes>
        0 -1 21792 -1.5698440372943878e-02</internalNodes>
      <leafValues>
        6.1282527446746826e-01 -1.4864026010036469e-01</leafValues></_>
    <_>
      <internalNodes>
        0 -1 36786 -5.8947602519765496e-04</internalNodes>
      <leafValues>
        -3.6839190125465393e-01 3.5465213656425476e-01</leafValues></_></weakClassifiers></stage13>
</opencv_storage>
