<?xml version="1.0"?>
<opencv_storage>
<stage14>
  <maxWeakCount>15</maxWeakCount>
  <stageThreshold>-8.5461103916168213e-01</stageThreshold>
  <weakClassifiers>
    <_>
      <internalNodes>
        0 -1 36791 -2.8163086972199380e-04</internalNodes>
      <leafValues>
        4.3957394361495972e-01 -6.6795367002487183e-01</leafValues></_>
    <_>
      <internalNodes>
        0 -1 30360 6.2988060526549816e-03</internalNodes>
      <leafValues>
        -2.8199198842048645e-01 3.8855063915252686e-01</leafValues></_>
    <_>
      <internalNodes>
        0 -1 13227 1.8350486643612385e-03</internalNodes>
      <leafValues>
        -3.1602880358695984e-01 3.1858745217323303e-01</leafValues></_>
    <_>
      <internalNodes>
        0 -1 16524 -2.3563142865896225e-02</internalNodes>
      <leafValues>
        -9.1500300168991089e-01 8.7006688117980957e-02</leafValues></_>
    <_>
      <internalNodes>
        0 -1 21792 -1.7179818823933601e-02</internalNodes>
      <leafValues>
        5.9369134902954102e-01 -2.0720109343528748e-01</leafValues></_>
    <_>
      <internalNodes>
        0 -1 35891 -4.4565577991306782e-04</internalNodes>
      <leafValues>
        -6.1284381151199341e-01 1.6243873536586761e-01</leafValues></_>
    <_>
      <internalNodes>
        0 -1 35891 3.7374516250565648e-04</internalNodes>
      <leafValues>
        2.5264587998390198e-01 -5.2980518341064453e-01</leafValues></_>
    <_>
      <internalNodes>
        0 -1 35628 -1.2854095548391342e-03</internalNodes>
      <leafValues>
        3.2560709118843079e-01 -2.5951021909713745e-01</leafValues></_>
    <_>
      <internalNodes>
        0 -1 37245 -2.6433598250150681e-02</internalNodes>
      <leafValues>
        7.5354284048080444e-01 -1.4714172482490540e-01</leafValues></_>
    <_>
      <internalNodes>
        0 -1 38468 2.5908241514116526e-03</internalNodes>
      <leafValues>
        -1.9128467142581940e-01 4.5404866337776184e-01</leafValues></_>
    <_>
      <internalNodes>
        0 -1 24350 8.8237663730978966e-03</internalNodes>
      <leafValues>
        1.3075000047683716e-01 -6.9141530990600586e-01</leafValues></_>
    <_>
      <internalNodes>
        0 -1 28606 -3.0282747466117144e-03</internalNodes>
      <leafValues>
        -6.0199922323226929e-01 1.2294477969408035e-01</leafValues></_>
    <_>
      <internalNodes>
        0 -1 24170 -4.4593205675482750e-03</internalNodes>
      <leafValues>
        -7.7962464094161987e-01 8.8728703558444977e-02</leafValues></_>
    <_>
      <internalNodes>
        0 -1 38435 -7.6903011649847031e-03</internalNodes>
      <leafValues>
        5.0299090147018433e-01 -1.8472680449485779e-01</leafValues></_>
    <_>
      <internalNodes>
        0 -1 37556 1.7110703047364950e-03</internalNodes>
      <leafValues>
        -7.6473188400268555e-01 1.4851963520050049e-01</leafValues></_></weakClassifiers></stage14>
</opencv_storage>
