<?xml version="1.0"?>
<opencv_storage>
<stage11>
  <maxWeakCount>12</maxWeakCount>
  <stageThreshold>-8.3474403619766235e-01</stageThreshold>
  <weakClassifiers>
    <_>
      <internalNodes>
        0 -1 36724 -5.5985909420996904e-04</internalNodes>
      <leafValues>
        -3.1543624401092529e-01 5.1711028814315796e-01</leafValues></_>
    <_>
      <internalNodes>
        0 -1 35705 2.4791184114292264e-04</internalNodes>
      <leafValues>
        -4.8247885704040527e-01 3.2754874229431152e-01</leafValues></_>
    <_>
      <internalNodes>
        0 -1 36798 -1.5775519423186779e-03</internalNodes>
      <leafValues>
        1.5351448953151703e-01 -7.6794642210006714e-01</leafValues></_>
    <_>
      <internalNodes>
        0 -1 24521 -1.8650505691766739e-02</internalNodes>
      <leafValues>
        5.7443553209304810e-01 -2.2824516892433167e-01</leafValues></_>
    <_>
      <internalNodes>
        0 -1 36724 4.0759411058388650e-04</internalNodes>
      <leafValues>
        1.4582212269306183e-01 -8.1899094581604004e-01</leafValues></_>
    <_>
      <internalNodes>
        0 -1 19343 -8.0524035729467869e-04</internalNodes>
      <leafValues>
        1.6586789488792419e-01 -5.3382259607315063e-01</leafValues></_>
    <_>
      <internalNodes>
        0 -1 28392 -3.0611748807132244e-03</internalNodes>
      <leafValues>
        -8.5237711668014526e-01 1.1408443748950958e-01</leafValues></_>
    <_>
      <internalNodes>
        0 -1 37536 -2.2098131012171507e-03</internalNodes>
      <leafValues>
        1.4776295423507690e-01 -5.4962790012359619e-01</leafValues></_>
    <_>
      <internalNodes>
        0 -1 36890 -1.0493304580450058e-03</internalNodes>
      <leafValues>
        3.1935754418373108e-01 -4.0117719769477844e-01</leafValues></_>
    <_>
      <internalNodes>
        0 -1 26607 9.8331719636917114e-03</internalNodes>
      <leafValues>
        1.2222396582365036e-01 -9.1640859842300415e-01</leafValues></_>
    <_>
      <internalNodes>
        0 -1 29938 -8.8140591979026794e-03</internalNodes>
      <leafValues>
        -7.7677124738693237e-01 8.5090868175029755e-02</leafValues></_>
    <_>
      <internalNodes>
        0 -1 21792 1.4696199446916580e-02</internalNodes>
      <leafValues>
        -1.9367752969264984e-01 5.4240745306015015e-01</leafValues></_></weakClassifiers></stage11>
</opencv_storage>
