<?xml version="1.0"?>
<opencv_storage>
<stage12>
  <maxWeakCount>13</maxWeakCount>
  <stageThreshold>-8.2572299242019653e-01</stageThreshold>
  <weakClassifiers>
    <_>
      <internalNodes>
        0 -1 35829 -1.3853595592081547e-03</internalNodes>
      <leafValues>
        -4.9494948983192444e-01 4.7569444775581360e-01</leafValues></_>
    <_>
      <internalNodes>
        0 -1 30389 3.4661986865103245e-03</internalNodes>
      <leafValues>
        -4.3169879913330078e-01 2.6321306824684143e-01</leafValues></_>
    <_>
      <internalNodes>
        0 -1 33368 9.3296272680163383e-03</internalNodes>
      <leafValues>
        -2.6878118515014648e-01 4.3035992980003357e-01</leafValues></_>
    <_>
      <internalNodes>
        0 -1 28058 2.1348122507333755e-02</internalNodes>
      <leafValues>
        1.0554873943328857e-01 -8.1010091304779053e-01</leafValues></_>
    <_>
      <internalNodes>
        0 -1 2519 3.3320160582661629e-03</internalNodes>
      <leafValues>
        -2.6116904616355896e-01 4.0839302539825439e-01</leafValues></_>
    <_>
      <internalNodes>
        0 -1 38122 3.0717239133082330e-04</internalNodes>
      <leafValues>
        -4.6258756518363953e-01 1.8562465906143188e-01</leafValues></_>
    <_>
      <internalNodes>
        0 -1 30421 -6.3408073037862778e-03</internalNodes>
      <leafValues>
        1.5369050204753876e-01 -6.2232691049575806e-01</leafValues></_>
    <_>
      <internalNodes>
        0 -1 36394 -2.1834885701537132e-03</internalNodes>
      <leafValues>
        3.9995539188385010e-01 -2.3564140498638153e-01</leafValues></_>
    <_>
      <internalNodes>
        0 -1 37534 -1.1034461203962564e-03</internalNodes>
      <leafValues>
        -6.1921089887619019e-01 1.3066917657852173e-01</leafValues></_>
    <_>
      <internalNodes>
        0 -1 19307 7.6279474887996912e-04</internalNodes>
      <leafValues>
        -5.5601412057876587e-01 1.7104052007198334e-01</leafValues></_>
    <_>
      <internalNodes>
        0 -1 22026 7.9084392637014389e-03</internalNodes>
      <leafValues>
        -2.2307214140892029e-01 4.9452301859855652e-01</leafValues></_>
    <_>
      <internalNodes>
        0 -1 16569 1.1730853002518415e-03</internalNodes>
      <leafValues>
        -2.7664521336555481e-01 4.0960004925727844e-01</leafValues></_>
    <_>
      <internalNodes>
        0 -1 29941 3.0280232895165682e-03</internalNodes>
      <leafValues>
        -8.2218581438064575e-01 1.2857408821582794e-01</leafValues></_></weakClassifiers></stage12>
</opencv_storage>
