<?xml version="1.0"?>
<opencv_storage>
<stage10>
  <maxWeakCount>14</maxWeakCount>
  <stageThreshold>-9.6005666255950928e-01</stageThreshold>
  <weakClassifiers>
    <_>
      <internalNodes>
        0 -1 38011 4.1939824586734176e-04</internalNodes>
      <leafValues>
        4.5568561553955078e-01 -6.1688309907913208e-01</leafValues></_>
    <_>
      <internalNodes>
        0 -1 37465 -1.4737395104020834e-03</internalNodes>
      <leafValues>
        -4.2564409971237183e-01 3.2904481887817383e-01</leafValues></_>
    <_>
      <internalNodes>
        0 -1 28617 -7.9898089170455933e-03</internalNodes>
      <leafValues>
        3.4526029229164124e-01 -3.7999987602233887e-01</leafValues></_>
    <_>
      <internalNodes>
        0 -1 36845 -2.2012637928128242e-03</internalNodes>
      <leafValues>
        1.9641309976577759e-01 -5.4821312427520752e-01</leafValues></_>
    <_>
      <internalNodes>
        0 -1 24027 -9.7234975546598434e-03</internalNodes>
      <leafValues>
        -8.2064068317413330e-01 1.2565732002258301e-01</leafValues></_>
    <_>
      <internalNodes>
        0 -1 37484 7.9854403156787157e-04</internalNodes>
      <leafValues>
        -6.7201244831085205e-01 1.4093324542045593e-01</leafValues></_>
    <_>
      <internalNodes>
        0 -1 19173 -1.7505586147308350e-02</internalNodes>
      <leafValues>
        6.5249139070510864e-01 -2.0002371072769165e-01</leafValues></_>
    <_>
      <internalNodes>
        0 -1 28346 -1.3678560499101877e-03</internalNodes>
      <leafValues>
        4.0589058399200439e-01 -3.1422159075737000e-01</leafValues></_>
    <_>
      <internalNodes>
        0 -1 35643 -1.7913736402988434e-02</internalNodes>
      <leafValues>
        -8.2956773042678833e-01 1.6229043900966644e-01</leafValues></_>
    <_>
      <internalNodes>
        0 -1 37536 -4.9171363934874535e-04</internalNodes>
      <leafValues>
        1.2155269831418991e-01 -7.9356890916824341e-01</leafValues></_>
    <_>
      <internalNodes>
        0 -1 34637 4.3953108252026141e-04</internalNodes>
      <leafValues>
        -3.5112863779067993e-01 2.6448997855186462e-01</leafValues></_>
    <_>
      <internalNodes>
        0 -1 26609 -9.6030896529555321e-03</internalNodes>
      <leafValues>
        -8.7029427289962769e-01 9.5067538321018219e-02</leafValues></_>
    <_>
      <internalNodes>
        0 -1 36768 3.7646788405254483e-04</internalNodes>
      <leafValues>
        -6.7037546634674072e-01 1.2557476758956909e-01</leafValues></_>
    <_>
      <internalNodes>
        0 -1 36712 2.4371314793825150e-02</internalNodes>
      <leafValues>
        8.3736747503280640e-02 -9.3467742204666138e-01</leafValues></_></weakClassifiers></stage10>
</opencv_storage>
